conv1d/kernel:0
(3, 22, 64)
[[[ 0.17456385 -0.0800752   0.09561142 ...  0.12664455  0.072741
   -0.07013197]
  [ 0.10764656  0.14087078  0.0206159  ... -0.00567286  0.08873013
    0.11067221]
  [-0.01680119  0.03744706 -0.04757386 ... -0.07655709 -0.09741887
   -0.01805687]
  ...
  [-0.00255059  0.1915947  -0.09186662 ... -0.08906904 -0.00826263
    0.05023308]
  [ 0.20729169  0.0666785  -0.08897209 ...  0.13565676  0.07828471
    0.0291449 ]
  [ 0.04815793 -0.09595248  0.04798188 ... -0.02066215 -0.05190691
    0.03879724]]

 [[ 0.07194007  0.10738261  0.00635831 ...  0.09304678 -0.00120693
   -0.03989625]
  [-0.00220042  0.01106543  0.05175474 ... -0.06268692 -0.0522915
   -0.05380577]
  [-0.06897563 -0.06063636 -0.17763053 ...  0.13636552 -0.13578014
    0.11525926]
  ...
  [ 0.13686134 -0.04253168 -0.09165383 ...  0.01785054 -0.03157886
   -0.13197118]
  [ 0.1866448   0.10251021  0.08196291 ... -0.04887914 -0.17497566
    0.02593803]
  [-0.07068124  0.05989224 -0.14097643 ... -0.0125014  -0.25364518
   -0.12597695]]

 [[-0.15678269 -0.12882191 -0.16019747 ...  0.22408172 -0.22533253
   -0.09218369]
  [-0.08189004  0.11225031 -0.15077364 ...  0.06783103  0.02253488
   -0.12305863]
  [ 0.1220089   0.1141623   0.07308578 ...  0.19209239 -0.19044314
   -0.14218752]
  ...
  [ 0.12906583 -0.08978499 -0.14423941 ...  0.08953576 -0.00494188
   -0.04233626]
  [-0.03505163  0.01024425 -0.13768873 ...  0.18150468 -0.09826135
   -0.07219877]
  [-0.01658867 -0.01942316 -0.23165928 ...  0.00347599 -0.19033702
   -0.08938052]]]
conv1d/bias:0
(64,)
[ 2.5782136e-02  4.8953737e-03 -1.5498227e-02 -1.0677989e-02
 -1.0339408e-02  7.9913912e-03 -1.7369909e-02  7.4434415e-03
 -1.7679710e-02  4.6829544e-03 -7.9094470e-03  1.2574436e-02
  0.0000000e+00 -1.4858722e-02  4.7961820e-02  4.2519267e-03
 -4.6975669e-03 -1.4633248e-02  7.9030739e-05 -1.3999385e-02
  8.0120983e-03 -1.3155882e-02  2.8948193e-02 -1.4531855e-02
  1.9159161e-02  1.8612179e-03  7.7178809e-03 -8.2624769e-03
 -1.2963999e-02 -7.6690186e-03 -2.0736873e-03  8.3637508e-03
  6.8677124e-03 -1.3815940e-02  2.3090061e-02  1.8016942e-02
 -7.2337212e-03 -4.9579316e-03  0.0000000e+00 -5.0406000e-03
  2.5432277e-02 -1.1548843e-02 -1.2046031e-02 -8.2359491e-03
  0.0000000e+00 -5.5558225e-03 -1.3761350e-02  5.4515801e-02
 -2.2811512e-03 -1.5728774e-02  0.0000000e+00 -6.6956962e-03
 -1.2692229e-02 -2.0521427e-02 -1.1155339e-03 -1.5228759e-02
 -6.6722389e-03 -8.5100196e-03 -1.0273435e-02  9.6955860e-04
 -1.3808607e-02  8.9581134e-03 -1.6705811e-02  0.0000000e+00]
gru/gru_cell/kernel:0
(64, 240)
[[-0.13762116  0.042076    0.05548063 ... -0.01903531  0.0209915
   0.08977949]
 [ 0.04019312 -0.04703112 -0.11385331 ... -0.09128313  0.13088141
   0.11108841]
 [-0.07143519  0.0323211   0.04681511 ... -0.04252115 -0.00941866
  -0.06948418]
 ...
 [-0.12068535 -0.12587462 -0.14310747 ...  0.07200863 -0.13985425
   0.06241103]
 [-0.10533994  0.02253329 -0.13634375 ... -0.14621662 -0.11190102
   0.02205811]
 [-0.06938446  0.05805631  0.09007543 ... -0.12958406 -0.03022705
   0.09732029]]
gru/gru_cell/recurrent_kernel:0
(80, 240)
[[ 0.08936337  0.12458998  0.00588303 ... -0.05428141  0.01181508
   0.007859  ]
 [-0.03696202  0.06548627  0.00572457 ... -0.16130057  0.06022692
  -0.0650538 ]
 [-0.05472908 -0.02773317 -0.05871117 ... -0.14894937  0.01097581
   0.00701308]
 ...
 [ 0.00793825 -0.05611025  0.03903464 ... -0.05489394  0.00822483
   0.05552486]
 [ 0.01249393 -0.03048196  0.02375979 ... -0.04033611 -0.02078599
   0.19813102]
 [-0.06331145  0.05759202 -0.02313069 ...  0.07800751  0.00425554
   0.06643539]]
gru/gru_cell/bias:0
(2, 240)
[[-3.35878618e-02  1.86276319e-03  1.91316754e-02 -3.53567079e-02
   6.86620548e-03 -1.01842858e-01 -1.64835989e-01 -6.84215650e-02
   1.15162898e-02 -6.57277256e-02 -3.27992558e-01  2.59581842e-02
   2.17199023e-03 -1.02701308e-02  1.09399445e-02 -2.21770942e-01
  -1.12057112e-01 -4.43492234e-01 -4.52464461e-01 -1.38925597e-01
  -8.14133603e-03 -7.75851905e-02 -3.00480202e-02  1.10870628e-02
   2.55271187e-03 -3.05723250e-02 -8.41892585e-02 -1.50347129e-01
  -2.04985380e-01 -3.69382948e-01 -9.84557867e-02 -1.27296254e-01
  -1.63146362e-01 -4.18809503e-02  8.84398236e-04 -2.06687003e-02
  -2.64085867e-02 -9.00822598e-03 -4.61703315e-02 -4.55991961e-02
  -1.54578507e-01  3.75786010e-04  8.56854245e-02  4.93087396e-02
  -1.40528195e-02 -1.66554675e-01  6.11744053e-06  7.64287892e-04
  -1.20058097e-02 -5.10264859e-02 -1.78281903e-01 -6.36325404e-02
  -3.33868772e-01 -2.23561540e-01 -4.29878742e-01 -2.53552228e-01
   7.22096488e-02 -1.72328446e-02 -1.21978886e-01 -9.73298699e-02
  -5.26075959e-02 -9.29336324e-02 -2.35892087e-01 -1.51689975e-02
   7.13270041e-04 -1.07498961e-02  3.57316225e-04 -1.01100057e-02
  -1.32828131e-01 -6.46321177e-02  3.61821167e-02 -3.36403362e-02
  -2.84946561e-01  1.96543504e-02 -2.24954173e-01  7.99197331e-03
  -1.16731273e-02 -2.19360337e-01 -5.40794199e-03 -1.17974669e-01
   3.53697017e-02 -5.11387363e-04 -5.97806973e-03  3.92819457e-02
   9.25868750e-03  2.72032451e-02 -2.59643886e-02  1.44041190e-02
   1.48450052e-02 -9.69986431e-03  1.10872565e-02  1.09261589e-03
   4.17161621e-02  3.25598456e-02 -5.61834895e-05 -1.03112655e-02
   6.03528647e-03  3.74511294e-02 -3.56069878e-02  8.10187981e-02
  -3.43840825e-03  6.94876583e-03  2.05842257e-02 -3.40330857e-03
   9.03298240e-03 -7.95878470e-03  9.91157889e-02  8.91027320e-03
   1.74575318e-02  7.10418224e-02  2.06813902e-01  8.57982226e-03
   3.18564475e-02 -7.13896472e-03 -6.75241929e-04  2.42749928e-03
   1.75752733e-02  1.84307434e-02 -1.27882417e-02 -2.47408752e-03
   9.69276130e-02 -1.53069588e-04  9.45959333e-03 -1.97665091e-03
  -1.60485879e-02  6.10924996e-02 -4.70905325e-05 -2.04325747e-03
  -9.47335083e-03  2.00668853e-02  2.91530937e-02  6.44506468e-03
   5.18811576e-05  1.70777310e-02  4.06413637e-02 -3.09281913e-03
  -8.03751219e-03 -5.65551966e-03  4.01665829e-02  7.11426092e-03
   2.22502872e-02 -2.58808746e-03  4.72793691e-02  3.38074341e-02
  -2.52533192e-03  1.60821453e-02  1.18496560e-03  7.23274983e-03
  -1.30936736e-02  4.83444659e-03  4.33738343e-02 -1.25537217e-02
   2.10110452e-02 -1.73292812e-02  3.71673666e-02  7.25776237e-03
  -8.59299116e-03  4.17098701e-02 -9.99781769e-04  1.59850121e-02
  -5.34549309e-03 -9.73101892e-03  8.83201137e-03 -8.69045686e-03
  -9.57923289e-03 -1.72415301e-02 -4.31090035e-03 -2.55457032e-02
  -8.29323474e-03 -6.68502925e-03 -3.49278538e-03 -4.33044322e-03
   8.94405507e-03 -3.14665735e-02 -7.48907402e-03 -8.00715014e-03
   5.57911000e-04  3.41502577e-03 -1.15124453e-02  3.16837151e-03
  -1.20058786e-02 -6.84804469e-03 -1.46411480e-02 -1.57124139e-02
  -1.02361823e-02 -9.63834208e-03  2.93490849e-02 -2.84685311e-03
  -1.80862863e-02  6.75712945e-03 -3.17613073e-02 -7.00862100e-03
  -1.48714669e-02  1.04816118e-03 -1.09268818e-02 -1.13424119e-02
  -4.59529227e-03 -8.33488908e-03 -1.33669423e-02 -1.52883930e-02
   1.76548667e-03 -8.58042389e-03  2.15353109e-02 -2.98607373e-03
  -1.13974987e-02 -2.63395160e-03 -1.50054479e-02 -9.08500794e-03
  -8.89461767e-03  3.39533959e-04 -3.45836184e-03 -1.61460713e-02
  -8.08419287e-03 -1.07027206e-03 -4.89473715e-03  2.45480929e-02
  -1.77183235e-03 -3.26756435e-03 -3.49178463e-02 -1.24205286e-02
  -8.88785906e-03 -5.17461589e-03 -2.69662160e-02 -6.19185669e-03
  -9.42909066e-03  1.37240160e-03 -3.45189460e-02 -2.18982659e-02
  -7.70309893e-03 -1.65589117e-02 -7.25891348e-03 -5.09981485e-03
  -8.81928951e-03  6.22763764e-03  8.96152388e-03 -1.06240241e-02
  -1.48956832e-02  8.48503225e-03 -5.61223039e-03  2.54422543e-03]
 [-3.35878618e-02  1.86276319e-03  1.91316754e-02 -3.53567079e-02
   6.86620548e-03 -1.01842858e-01 -1.64835989e-01 -6.84215650e-02
   1.15162898e-02 -6.57277256e-02 -3.27992558e-01  2.59581842e-02
   2.17199023e-03 -1.02701308e-02  1.09399445e-02 -2.21770942e-01
  -1.12057112e-01 -4.43492234e-01 -4.52464461e-01 -1.38925597e-01
  -8.14133603e-03 -7.75851905e-02 -3.00480202e-02  1.10870628e-02
   2.55271187e-03 -3.05723250e-02 -8.41892585e-02 -1.50347129e-01
  -2.04985380e-01 -3.69382948e-01 -9.84557867e-02 -1.27296254e-01
  -1.63146362e-01 -4.18809503e-02  8.84398236e-04 -2.06687003e-02
  -2.64085867e-02 -9.00822598e-03 -4.61703315e-02 -4.55991961e-02
  -1.54578507e-01  3.75786010e-04  8.56854245e-02  4.93087396e-02
  -1.40528195e-02 -1.66554675e-01  6.11744053e-06  7.64287892e-04
  -1.20058097e-02 -5.10264859e-02 -1.78281903e-01 -6.36325404e-02
  -3.33868772e-01 -2.23561540e-01 -4.29878742e-01 -2.53552228e-01
   7.22096488e-02 -1.72328446e-02 -1.21978886e-01 -9.73298699e-02
  -5.26075959e-02 -9.29336324e-02 -2.35892087e-01 -1.51689975e-02
   7.13270041e-04 -1.07498961e-02  3.57316225e-04 -1.01100057e-02
  -1.32828131e-01 -6.46321177e-02  3.61821167e-02 -3.36403362e-02
  -2.84946561e-01  1.96543504e-02 -2.24954173e-01  7.99197331e-03
  -1.16731273e-02 -2.19360337e-01 -5.40794199e-03 -1.17974669e-01
   3.53697017e-02 -5.11387363e-04 -5.97806973e-03  3.92819457e-02
   9.25868750e-03  2.72032451e-02 -2.59643886e-02  1.44041190e-02
   1.48450052e-02 -9.69986431e-03  1.10872565e-02  1.09261589e-03
   4.17161621e-02  3.25598456e-02 -5.61834895e-05 -1.03112655e-02
   6.03528647e-03  3.74511294e-02 -3.56069878e-02  8.10187981e-02
  -3.43840825e-03  6.94876583e-03  2.05842257e-02 -3.40330857e-03
   9.03298240e-03 -7.95878470e-03  9.91157889e-02  8.91027320e-03
   1.74575318e-02  7.10418224e-02  2.06813902e-01  8.57982226e-03
   3.18564475e-02 -7.13896472e-03 -6.75241929e-04  2.42749928e-03
   1.75752733e-02  1.84307434e-02 -1.27882417e-02 -2.47408752e-03
   9.69276130e-02 -1.53069588e-04  9.45959333e-03 -1.97665091e-03
  -1.60485879e-02  6.10924996e-02 -4.70905325e-05 -2.04325747e-03
  -9.47335083e-03  2.00668853e-02  2.91530937e-02  6.44506468e-03
   5.18811576e-05  1.70777310e-02  4.06413637e-02 -3.09281913e-03
  -8.03751219e-03 -5.65551966e-03  4.01665829e-02  7.11426092e-03
   2.22502872e-02 -2.58808746e-03  4.72793691e-02  3.38074341e-02
  -2.52533192e-03  1.60821453e-02  1.18496560e-03  7.23274983e-03
  -1.30936736e-02  4.83444659e-03  4.33738343e-02 -1.25537217e-02
   2.10110452e-02 -1.73292812e-02  3.71673666e-02  7.25776237e-03
  -8.59299116e-03  4.17098701e-02 -9.99781769e-04  1.59850121e-02
  -5.64651564e-03 -1.06472587e-02  7.49797886e-03 -8.66893586e-03
  -9.58189182e-03 -1.72443744e-02 -4.23017982e-03 -2.58062501e-02
  -8.78431275e-03 -6.59566280e-03 -4.14398545e-03 -4.05786466e-03
   9.22651868e-03 -3.09830643e-02 -7.44362688e-03 -6.94453483e-03
   3.83511186e-04  3.15005565e-03 -1.14736147e-02  3.73456511e-03
  -1.20316762e-02 -6.80286670e-03 -1.36051476e-02 -1.52950287e-02
  -1.04130609e-02 -9.37576499e-03  3.00867073e-02 -2.98287114e-03
  -1.74865630e-02  6.01574499e-03 -3.02353781e-02 -7.21022347e-03
  -1.44302612e-02  1.15904701e-03 -1.07462090e-02 -1.14032039e-02
  -4.77983803e-03 -8.45164526e-03 -1.34600634e-02 -1.52696939e-02
   7.79656868e-04 -8.58143065e-03  2.39225067e-02 -2.39060353e-03
  -1.12257386e-02 -3.28574097e-03 -1.28010288e-02 -8.95150471e-03
  -8.80367029e-03  1.67898048e-04 -3.82680725e-03 -1.62670240e-02
  -8.22027586e-03 -2.58988934e-03 -4.81538847e-03  2.35871449e-02
  -1.88467989e-03 -3.23930057e-03 -3.39595526e-02 -1.23981070e-02
  -8.97011906e-03 -5.27669163e-03 -2.65233330e-02 -6.12718472e-03
  -9.30527505e-03  1.52257050e-03 -3.08917239e-02 -2.15941053e-02
  -7.37411063e-03 -1.68658625e-02 -7.51570240e-03 -5.06087067e-03
  -8.19481909e-03  5.27957594e-03  8.83186050e-03 -1.08182225e-02
  -1.50411818e-02  8.62181094e-03 -5.97978989e-03  2.54820846e-03]]
attention_score_vec/kernel:0
(80, 80)
[[-0.08519939  0.06021624 -0.02816853 ... -0.1257352   0.03152338
  -0.1863204 ]
 [ 0.0097449   0.01169615 -0.13753662 ...  0.15389834  0.14508447
  -0.15878592]
 [-0.19010712 -0.06371974 -0.16449225 ... -0.0363186   0.15407656
  -0.09109454]
 ...
 [-0.1147323   0.09665195  0.1602662  ... -0.11331751 -0.09420566
  -0.1085104 ]
 [ 0.14764276 -0.16430289  0.17087008 ... -0.04859524  0.16807948
   0.09371701]
 [-0.10954819  0.03062284  0.05199005 ...  0.01011468  0.07346955
  -0.10532957]]
attention_vector/kernel:0
(160, 128)
[[-0.11735997  0.06971225 -0.10535528 ...  0.14840537 -0.03639521
   0.03401973]
 [-0.14036186  0.00798415  0.12298601 ...  0.01598254  0.02539808
  -0.108399  ]
 [ 0.03299779  0.00563813 -0.02386887 ...  0.13288084 -0.07823119
   0.10867951]
 ...
 [ 0.10884585  0.00186237 -0.23089783 ... -0.12765995 -0.06000549
  -0.05956006]
 [-0.09976625  0.02079554 -0.04035605 ... -0.07351193  0.03315362
   0.03413802]
 [ 0.11514526 -0.12813497  0.00989576 ...  0.02395372  0.02468462
  -0.04577324]]
dense/kernel:0
(128, 80)
[[ 0.09704792  0.00368418  0.11257287 ... -0.04731895 -0.14761378
  -0.02131797]
 [-0.03997466  0.16956897  0.13521063 ... -0.12577891 -0.06057575
  -0.00430201]
 [ 0.03079661 -0.07216526  0.13388796 ... -0.05594828  0.05038343
   0.16810462]
 ...
 [ 0.14382319 -0.05855204 -0.01227243 ...  0.096288    0.06330479
  -0.12234415]
 [-0.09062792  0.04940152  0.1581722  ...  0.1221808   0.00032157
   0.0167041 ]
 [ 0.04991584  0.12328867 -0.02573966 ...  0.00089296 -0.14341062
   0.13583237]]
dense/bias:0
(80,)
[-0.02718587 -0.03487184 -0.00842275  0.02081713 -0.0159971  -0.01219716
  0.01108113 -0.01239665 -0.0197472  -0.02141822  0.00012055 -0.02286
 -0.00861598 -0.00685099 -0.00687715 -0.01015547 -0.00695228 -0.01045948
  0.0372921   0.01953173 -0.0139352  -0.0228238   0.0148661  -0.00933005
 -0.00193016 -0.00689543 -0.01421835 -0.02125376 -0.02659027 -0.02208422
  0.01271343  0.00315035  0.02359856 -0.01608823 -0.01042891 -0.02633392
 -0.0005336  -0.01343192 -0.02202547 -0.0177036  -0.01226647  0.04600172
 -0.01724157 -0.01413641  0.00693983 -0.00826717 -0.02711348  0.00245378
  0.02176146 -0.00611873 -0.02002249 -0.02521193 -0.01286485 -0.00993228
  0.02064526 -0.02294523 -0.00634566  0.00454683 -0.01250292 -0.00999377
 -0.0225317  -0.00970657 -0.00070277  0.00904893 -0.0259975   0.01905725
  0.01658697  0.01647122 -0.02476358 -0.01004246 -0.00665962 -0.01188392
  0.02093878 -0.04468893 -0.02054001 -0.01509899  0.02854376  0.00671599
 -0.01200468 -0.0019619 ]
dense_1/kernel:0
(80, 5)
[[ 0.11842558  0.20510417 -0.09747934 -0.09508726 -0.10461534]
 [-0.21635588 -0.20223166 -0.18184176 -0.06688542  0.23242888]
 [-0.18766347 -0.09632231  0.1051828  -0.25298572 -0.0944105 ]
 [ 0.2668365  -0.215323    0.1902538   0.09347443  0.17613411]
 [-0.01793225  0.14571142  0.0835795  -0.13360816 -0.06986617]
 [-0.14142475 -0.10779369 -0.05045122  0.07443017  0.20627841]
 [ 0.10169667 -0.04211225  0.05848866 -0.02498335  0.19857764]
 [-0.12741277  0.07032007 -0.20826635  0.26396355 -0.24863343]
 [-0.0164346  -0.00434633  0.2500264  -0.12042683  0.24054594]
 [ 0.04116682 -0.13093302 -0.01322982 -0.17266278 -0.05035015]
 [ 0.167711    0.16795558  0.09419719 -0.1774404  -0.0394371 ]
 [ 0.02024708  0.07714045 -0.22180483 -0.07816228  0.01401534]
 [ 0.19452216  0.25051963  0.00688372  0.04561228 -0.17746796]
 [ 0.17377543  0.20371552 -0.07490006  0.2286085  -0.12402592]
 [ 0.08985706 -0.24677779  0.15315306 -0.22368068 -0.16302821]
 [ 0.15800577 -0.02220493  0.09059533 -0.21198733  0.1275405 ]
 [-0.05167558 -0.24288453 -0.11875496 -0.12181423 -0.16718204]
 [-0.09524677  0.16477431 -0.11135864 -0.06607258 -0.2160558 ]
 [ 0.13892956  0.2333325   0.06285006  0.07779415  0.17519483]
 [ 0.20937145  0.18603775  0.1612896   0.13708748  0.25837088]
 [ 0.00070598 -0.01474887  0.18194571 -0.13873671  0.08181287]
 [ 0.08400521 -0.07856902 -0.14678228 -0.23967871 -0.1391365 ]
 [-0.09976598  0.19863799 -0.14547077  0.05264785  0.12316264]
 [-0.17470117 -0.24329855 -0.23350513  0.2156741   0.17421179]
 [-0.12728527  0.04770958  0.03871073 -0.05551146  0.16325693]
 [-0.17457776  0.1982069  -0.22810768  0.25325733 -0.08902611]
 [-0.17373441 -0.01474443  0.19399302 -0.15534283  0.20059842]
 [-0.14272259 -0.02462881 -0.17870443 -0.03087539 -0.21126387]
 [-0.0752352  -0.05385945  0.14068599  0.02342398 -0.12791394]
 [ 0.01752991 -0.17884243 -0.21588916  0.04637614 -0.03861354]
 [ 0.18947615  0.03188173 -0.04079446  0.06529095  0.08237935]
 [ 0.16811116  0.11953679 -0.01908416 -0.06662732 -0.22431746]
 [ 0.16299477  0.08433645  0.2663714   0.04361222  0.07328612]
 [-0.25195566 -0.20468567  0.17476931 -0.08160082  0.2306188 ]
 [ 0.01642018 -0.19204454 -0.20346908  0.24158792 -0.02029603]
 [-0.12286428 -0.1916239   0.19134675  0.11954345 -0.23635732]
 [-0.05193686  0.01645886  0.23304617 -0.15999918  0.20039175]
 [ 0.09156853 -0.01865597  0.09989133 -0.21920392 -0.15662187]
 [-0.22846204 -0.16843449 -0.02294556  0.04578345 -0.23556156]
 [ 0.04488532 -0.12087335 -0.05325729  0.07696093 -0.11724991]
 [ 0.18146987  0.25142685 -0.1871418  -0.03699581 -0.20043029]
 [ 0.0422824   0.26363462 -0.06003888  0.03657895  0.11344138]
 [-0.2300608  -0.01291104 -0.18520305  0.01723432  0.22796999]
 [ 0.13817069 -0.03995249 -0.05120711  0.18017137  0.07702896]
 [ 0.19423535  0.17659771  0.07793308  0.21337898  0.15919174]
 [-0.17578854  0.23729455 -0.00316378 -0.1701477  -0.14625937]
 [-0.03257215  0.25152734 -0.14592664 -0.16625443  0.03469858]
 [-0.04931396 -0.23316672 -0.1992039  -0.24505126 -0.15461493]
 [ 0.2042802   0.20425604  0.22058384 -0.03135878  0.10936408]
 [-0.2261369  -0.1250764  -0.24931376  0.18187939 -0.25684905]
 [ 0.2526922  -0.0429562  -0.17829716 -0.02303772 -0.0161629 ]
 [ 0.06120469  0.15285929  0.19265836  0.12326789  0.11310679]
 [ 0.25475937  0.03426436 -0.00990531  0.11747535 -0.06263624]
 [ 0.16254945 -0.17372109  0.13403052 -0.24150436 -0.18252108]
 [ 0.2539083   0.1728604   0.19392958  0.19225878 -0.11213667]
 [-0.12281098  0.21650808 -0.08451526 -0.04206237  0.2260579 ]
 [ 0.20166399 -0.09127535 -0.17178047 -0.20192486 -0.19765818]
 [-0.08924001  0.18342862 -0.10617662  0.06682553 -0.02646608]
 [-0.04707092  0.12364968 -0.26147807  0.04214823  0.2264302 ]
 [ 0.03305736 -0.04325541  0.16426267  0.12703907 -0.1223539 ]
 [ 0.09655312 -0.02361594 -0.23704818 -0.0662601   0.08204678]
 [ 0.18396568 -0.17538448  0.17011313 -0.17799301 -0.18494344]
 [-0.03994274  0.06076284 -0.05341505 -0.05577527 -0.23758438]
 [ 0.23500381  0.22687991  0.27478126  0.30846134  0.24662124]
 [ 0.08602933 -0.24292846  0.06718523 -0.09786188 -0.00308583]
 [ 0.21166493 -0.14123552  0.20890443  0.05052869  0.12976098]
 [ 0.30948523  0.17292084  0.23741886 -0.142886   -0.02627238]
 [-0.1534236   0.17406815  0.08758518  0.23943886  0.14875495]
 [ 0.15153295 -0.11061268  0.16263185  0.07522637  0.06532884]
 [ 0.0659691   0.05198984 -0.01360707  0.08648559  0.13265689]
 [-0.22815883  0.04255735 -0.14606498  0.16236754 -0.11643709]
 [ 0.22029175  0.23897745 -0.1245038   0.11450984 -0.20703073]
 [ 0.2076445   0.063833    0.05916967  0.1828918   0.16876318]
 [-0.25163415 -0.08149872  0.08157629  0.24576254 -0.00313146]
 [ 0.12884714 -0.05131702 -0.25684202 -0.16509704 -0.19415411]
 [-0.23763525 -0.1507877  -0.116529    0.21157803  0.00608775]
 [-0.20529823 -0.04802202  0.14713041  0.2534946   0.17083399]
 [ 0.00202507  0.13232407 -0.22299804  0.13708276 -0.07278293]
 [-0.21252228  0.12852651 -0.07951581  0.22028255  0.1828523 ]
 [-0.08314086  0.08800879 -0.17095998 -0.19155037 -0.19917716]]
dense_1/bias:0
(5,)
[0.01952335 0.02060928 0.02549962 0.02750706 0.01943614]
